digraph Tree {
node [shape=box, style="filled, rounded", color="black", fontname=helvetica] ;
edge [fontname=helvetica] ;
0 [label="petal length (cm) <= 2.45\ngini = 0.66\nsamples = 89\nvalue = [43, 55, 52]\nclass = versicolor", fillcolor="#f9fefb"] ;
1 [label="gini = 0.0\nsamples = 26\nvalue = [43, 0, 0]\nclass = setosa", fillcolor="#e58139"] ;
0 -> 1 [labeldistance=2.5, labelangle=45, headlabel="True"] ;
2 [label="sepal length (cm) <= 6.25\ngini = 0.5\nsamples = 63\nvalue = [0, 55, 52]\nclass = versicolor", fillcolor="#f4fef8"] ;
0 -> 2 [labeldistance=2.5, labelangle=-45, headlabel="False"] ;
3 [label="petal length (cm) <= 4.8\ngini = 0.3\nsamples = 33\nvalue = [0, 39, 9]\nclass = versicolor", fillcolor="#67eb9e"] ;
2 -> 3 ;
4 [label="gini = 0.0\nsamples = 28\nvalue = [0, 38, 0]\nclass = versicolor", fillcolor="#39e581"] ;
3 -> 4 ;
5 [label="petal length (cm) <= 5.05\ngini = 0.18\nsamples = 5\nvalue = [0, 1, 9]\nclass = virginica", fillcolor="#8f4fe8"] ;
3 -> 5 ;
6 [label="gini = 0.0\nsamples = 3\nvalue = [0, 0, 7]\nclass = virginica", fillcolor="#8139e5"] ;
5 -> 6 ;
7 [label="sepal width (cm) <= 2.65\ngini = 0.44\nsamples = 2\nvalue = [0, 1, 2]\nclass = virginica", fillcolor="#c09cf2"] ;
5 -> 7 ;
8 [label="gini = 0.0\nsamples = 1\nvalue = [0, 0, 2]\nclass = virginica", fillcolor="#8139e5"] ;
7 -> 8 ;
9 [label="gini = 0.0\nsamples = 1\nvalue = [0, 1, 0]\nclass = versicolor", fillcolor="#39e581"] ;
7 -> 9 ;
10 [label="petal width (cm) <= 1.75\ngini = 0.4\nsamples = 30\nvalue = [0, 16, 43]\nclass = virginica", fillcolor="#b083ef"] ;
2 -> 10 ;
11 [label="petal length (cm) <= 5.05\ngini = 0.11\nsamples = 9\nvalue = [0, 16, 1]\nclass = versicolor", fillcolor="#45e789"] ;
10 -> 11 ;
12 [label="gini = 0.0\nsamples = 8\nvalue = [0, 16, 0]\nclass = versicolor", fillcolor="#39e581"] ;
11 -> 12 ;
13 [label="gini = 0.0\nsamples = 1\nvalue = [0, 0, 1]\nclass = virginica", fillcolor="#8139e5"] ;
11 -> 13 ;
14 [label="gini = 0.0\nsamples = 21\nvalue = [0, 0, 42]\nclass = virginica", fillcolor="#8139e5"] ;
10 -> 14 ;
}